/*
 * ffneuralnet.h
 *
 *  Created on: 26 בס 2018
 *      Author: Thanos
 */

#ifndef FFNEURALNET_H_
#define FFNEURALNET_H_

double WeightIH[90][36]= {
		{-0.0056531,-0.065274,-0.093191,0.019578,-0.1191,0.061241,0.20293,-0.081214,0.071539,0.21079,-0.16442,-0.052501,-0.033907,0.20306,0.041589,-0.055103,0.040641,0.0044779,0.15781,0.077944,-0.0083125,0.068706,0.3221,-0.071065,0.082117,-0.065305,0.24435,-0.021403,-0.16256,0.022809,0.16846,0.055708,0.096983,-0.056553,0.044348,0.027953},
		{-0.11537,-0.11428,-0.044094,0.036304,-0.039374,-0.11967,-0.14758,-0.11447,0.19791,-0.094958,-0.22798,-0.066995,0.10742,-0.052707,-0.096839,0.057487,0.14072,-0.068499,0.20634,0.13418,0.16076,-0.034535,-0.24485,0.019678,0.038835,-0.0077717,-0.12677,0.091359,0.049068,0.055395,-0.029391,0.022447,-0.10687,0.049625,0.14036,-0.0052244},
		{-0.27047,-0.31155,-0.13738,-0.035019,0.15082,-0.04261,0.065064,0.19011,-0.076014,0.17703,-0.0072847,-0.24987,0.12022,0.0075487,0.25316,0.117,0.052563,-0.085256,0.021411,0.053535,0.22446,-0.22294,-0.17605,0.062541,0.041272,0.053357,-0.102,-0.14971,0.23443,-0.025513,-0.19606,-0.026181,-0.1387,0.16924,0.18736,-0.11366},
		{-0.073972,0.045412,0.11023,-0.082788,-0.17898,0.07733,-0.014363,-0.23648,-0.20932,-0.17867,-0.10252,-0.18051,0.037984,0.050531,0.057137,0.093803,-0.048725,-0.011076,0.072157,-0.022591,0.099013,-0.037873,0.25776,-0.037438,-0.26681,-0.00419,0.1709,0.0016069,-0.13459,-0.031039,0.16885,0.049023,-0.11036,-0.0038507,0.16408,0.015303},
		{0.013645,-0.041472,0.13524,-0.1585,-0.0046302,-0.075168,-0.17468,0.088668,0.087394,0.21406,-0.049579,-0.10078,0.13122,0.011402,0.068139,-0.046171,-0.22234,-0.10622,0.1956,0.052682,-0.16217,-0.0010891,-0.099057,0.014164,0.1789,0.079461,0.058952,-0.037534,-0.15525,0.10549,-0.20123,-0.046964,-0.24214,0.097457,-0.23645,-0.05464},
		{0.12523,0.041216,0.03348,-0.048635,-0.1717,-0.14658,0.29838,-0.076482,0.1157,-0.12355,0.24849,-0.18463,0.035571,-0.25221,0.060388,-0.052811,-0.31413,-0.14261,0.091454,0.35928,0.15733,-0.08414,0.27928,0.30512,-0.083184,-0.3777,0.15412,0.21726,0.050162,-0.33135,-0.020235,0.066294,0.20488,-0.21745,0.11822,0.26149},
		{-0.30748,-0.1714,0.077141,0.058762,0.095192,0.015922,0.16474,0.036094,-0.15422,0.0074116,-0.018695,-0.11273,0.11366,-0.051066,0.19963,0.0776,-0.13038,-0.080301,0.14218,0.052576,0.029861,0.023948,0.34928,0.0087488,-0.21856,-0.07412,-0.20544,-0.086343,0.12935,0.059999,0.32879,0.043772,-0.097013,-0.030681,-0.11394,0.053552},
		{0.012113,-0.094507,0.11637,0.048657,-0.011154,-0.046466,0.042163,0.071018,-0.17506,-0.10478,-0.043343,0.14398,-0.024096,0.021941,0.043011,0.13171,-0.083413,0.021842,0.025959,-0.054812,-0.05357,-0.11553,0.26747,0.0086375,0.27108,0.028363,0.18076,-0.083031,0.36563,-0.035621,0.19585,-0.070565,0.32588,0.034799,-0.027837,0.026078},
		{0.2417,0.09465,0.14308,0.33991,0.11388,0.2491,0.098936,-0.04317,0.022683,-0.074412,0.082621,-0.13999,-0.0065647,-0.0010707,-0.0002338,0.0581,-0.12017,0.086043,-0.018,0.049018,-0.23257,0.029585,-0.14268,0.072455,0.041803,0.1169,-0.18992,-0.040359,0.23367,-0.034705,0.071828,-0.044196,-0.16165,0.13489,0.097645,-0.015353},
		{0.052089,-0.003974,-0.015663,-0.0085792,0.20597,0.10538,0.013581,0.11262,-0.0031396,-0.15101,-0.032654,-0.21718,-0.019298,0.16659,-0.13841,-0.049578,-0.062933,0.12959,-0.021291,-0.20513,-0.12761,0.024695,-0.077203,-0.30548,0.048999,0.36571,-0.18728,-0.10021,-0.074578,0.25571,0.056932,-0.1275,0.14287,-0.017396,-0.10938,-0.25964},
		{0.11447,0.14239,0.047541,0.011656,0.18971,0.034522,0.038933,0.10426,-0.031222,0.11228,0.2012,-0.12177,0.018776,-0.054683,0.072151,-0.11458,-0.022651,0.080244,0.14395,-0.075174,0.12029,0.05117,0.29274,-0.1145,0.0033434,0.15223,0.026151,0.028289,0.018025,0.039526,-0.14116,0.046812,-0.25789,-0.044187,0.12155,-0.084962},
		{-0.010455,0.048315,0.16069,0.11989,-0.17284,0.093586,0.11952,0.18926,0.1023,0.052151,0.13322,0.0019841,0.0084862,-0.084376,0.11225,0.028854,-0.10178,-0.060692,-0.2171,0.011616,-0.19429,0.014766,0.1242,-0.001307,0.26327,0.07742,0.14493,0.089788,0.22595,0.05089,0.16319,-0.088333,0.02351,0.054733,0.030477,-0.0077584},
		{0.0994,0.19513,0.12223,0.031802,-0.10271,-0.20738,-0.063078,-0.19215,0.011171,0.058271,0.20347,-0.23328,0.16324,-0.08934,0.11386,-0.1258,0.083601,-0.10234,-0.060597,0.10212,-0.16452,-0.15468,-0.18479,0.1274,-0.13111,-0.13461,0.076896,-0.028398,0.28449,-0.040578,0.2925,0.15628,0.29518,-0.13387,-0.1436,0.18266},
		{-0.14457,-0.25237,-0.029156,-0.07481,0.064264,0.28014,-0.15847,0.20236,0.14538,-0.11148,-0.13929,0.36586,-0.031521,0.050308,-0.0053213,0.06441,0.13899,0.19825,0.30246,-0.22493,0.17973,-0.018084,-0.31812,-0.23394,0.12447,0.078073,0.26363,0.14358,0.055217,-0.21572,-0.23211,0.0036635,-0.039137,0.17801,0.20253,-0.14372},
		{-0.13043,0.089159,0.024675,-0.21694,0.089962,-0.098268,0.051911,-0.089477,-0.01272,-0.10616,-0.022224,-0.10323,-0.020944,-0.0026811,-0.12171,0.011388,-0.21219,0.044138,0.089022,-0.04326,0.12564,-0.10257,0.1653,0.0058214,0.26205,0.10727,0.10324,-0.092903,-0.25219,0.0077308,0.064556,0.083872,0.22095,-0.027411,0.19142,-0.033484},
		{0.028882,0.056648,-0.029392,-0.1666,0.1345,0.024607,0.097417,0.18345,0.038942,-0.189,-0.027421,-0.17222,-0.14891,0.13458,-0.036773,0.12956,-0.18623,-0.055039,-0.08279,0.032043,0.17617,-0.039231,0.24444,0.049887,0.19461,-0.019886,-0.018163,0.097334,-0.27442,0.0077702,-0.25898,-0.058914,-0.26254,-0.065391,0.13714,-0.038688},
		{0.039898,0.050254,0.0092263,0.035529,0.075878,0.17801,-0.14712,-0.18986,-0.091228,-0.085014,-0.10955,-0.049819,-0.087257,0.004827,-0.076903,-0.013915,-0.1055,-0.077126,-0.23117,-0.074635,0.16515,-0.1146,-0.1267,0.03426,-0.06327,0.0053281,0.0037597,0.12006,0.022333,-0.00083674,-0.16381,-0.040086,0.29061,0.089959,0.02693,0.041709},
		{-0.020774,-0.15383,-0.018437,-0.048485,0.16885,0.16629,0.1289,-0.11917,0.10025,0.1388,0.12564,-0.21262,0.015924,-0.029738,-0.12639,-0.043031,-0.094035,0.040237,0.2573,-0.027201,0.23662,0.11057,-0.18258,-0.20168,0.0024508,0.084199,0.11422,-0.02213,-0.22839,-0.061298,-0.08223,0.012854,-0.041341,0.10799,-0.14044,-0.068141},
		{-0.069671,-0.0067885,-0.037157,0.12737,-0.1726,-0.1308,0.16113,0.13207,0.1846,-0.06724,-0.075063,0.10775,-0.040837,-0.044135,0.10572,0.0069178,0.049284,0.097599,0.12186,-0.093103,-0.097938,0.015053,-0.25815,0.15348,0.18148,-0.017108,-0.14024,-0.086631,-0.079854,-0.060502,0.17433,0.070623,-0.060131,-0.094318,-0.11417,-0.036498},
		{0.07584,-0.079954,0.08806,0.098751,-0.14126,-0.1829,-0.14387,0.23034,-0.014469,0.026347,0.092867,-0.12866,-0.07687,-0.057038,0.06917,0.07527,0.11931,0.022006,-0.1049,-0.06884,-0.15496,-0.0075197,-0.29756,-0.017825,0.072381,0.044698,0.24934,-0.014038,-0.21324,-0.12056,-0.093559,0.047113,-0.27167,-0.10664,-0.24368,-0.012771},
		{0.11789,0.010648,0.09454,-0.18884,-0.086912,0.0056274,0.043042,-0.040947,0.069658,0.1756,0.23147,0.082635,-0.029575,-0.036198,0.14097,0.0049744,-0.25291,0.031051,0.11096,-0.018337,-0.21102,-0.025958,0.2565,0.0032766,-0.22619,0.041655,-0.1142,0.12514,0.30309,0.027084,-0.090024,-0.035648,-0.15876,-0.049961,0.19395,0.036447},
		{-0.056953,0.019481,-0.11213,-0.00093379,0.029793,0.07627,-0.10855,0.14631,0.16431,0.1523,-0.064688,-0.077019,-0.015342,0.090114,0.078564,-0.049807,0.25494,-0.026644,-0.17876,0.012204,-0.16118,-0.12338,0.10521,0.050018,0.082517,-0.071595,0.19067,0.084246,-0.29794,0.038795,0.1814,-0.010059,0.16047,0.074542,0.17433,-0.064691},
		{0.083411,0.015928,0.090717,0.078155,-0.1363,0.12777,-0.039215,-0.0033613,-0.074653,0.088948,-0.16392,-0.24797,-0.039109,-0.029357,0.08169,-0.057558,-0.1112,0.088717,-0.28364,0.06648,0.21261,0.19716,0.32138,-0.18164,-0.19633,0.064895,0.057238,0.011416,0.23661,0.030952,0.071052,0.072438,0.021743,0.079757,-0.12553,0.020939},
		{0.16274,-0.031782,0.0020239,-0.11847,0.048123,-0.1388,-0.055468,0.1021,-0.089197,0.14728,-0.0066111,-0.18702,-0.011202,-0.059312,0.012632,-0.076037,-0.097629,0.075497,-0.020693,0.014603,-0.21948,0.10136,0.0083946,0.02185,-0.023064,0.020578,-0.2649,-0.12282,0.28214,0.077655,0.050633,0.0056573,0.24682,-0.14012,0.080526,0.011224},
		{-0.10588,-0.11596,0.078357,0.15086,-0.1569,0.12112,0.090584,-0.13427,0.17733,-0.16266,0.019025,0.23094,0.081773,0.018095,-0.047667,-0.062255,-0.19521,0.0069499,0.14208,0.041436,0.178,0.11009,0.052187,-0.049144,0.13508,0.032995,0.049198,-0.039196,-0.14062,0.05636,0.0015728,0.052906,-0.17371,0.077078,-0.12771,-0.027438},
		{-0.10169,0.048785,0.079123,-0.095464,-0.085357,-0.11611,0.1502,0.041617,-0.13281,-0.10908,-0.10153,-0.13297,0.12668,-0.032017,-0.11288,0.03898,-0.15311,0.037853,-0.0091112,0.011565,-0.093759,0.092328,-0.10138,-0.07475,0.23205,-0.057535,0.0074574,0.060379,0.12053,0.036435,-0.21166,-0.049461,0.084226,0.085239,-0.12737,-0.056752},
		{-0.0096078,0.16143,-0.076973,0.17996,-0.13576,-0.054591,0.13662,-0.0088012,0.23637,0.082635,0.27732,-0.19073,0.057583,0.019462,0.071829,-0.097566,-0.22521,0.099784,0.14129,0.018733,-0.021338,-0.11618,-0.1198,0.0056925,-0.061628,-0.11298,-0.14636,0.26231,0.014132,-0.16483,0.076353,0.011562,0.11118,-0.24146,0.1164,0.26957},
		{0.1318,0.15473,0.037038,-0.044959,-0.10259,0.13492,0.033541,0.25126,-0.1387,-0.096184,0.32337,-0.18689,-0.12579,0.10185,-0.13417,-0.13084,0.09022,0.10438,-0.18115,0.064317,0.031526,0.26641,-0.15329,-0.21084,0.13108,0.068424,0.030203,-0.1844,0.17241,0.17781,0.1987,0.034015,0.11566,-0.20324,-0.098607,-0.093831},
		{-0.056069,-0.11881,-0.16423,-0.051684,0.0059915,-0.10766,0.15058,-0.16598,0.12891,0.16248,-0.1237,-0.0658,0.087824,-0.02254,0.13106,-0.0077722,0.17343,0.057275,-0.0596,-0.067981,-0.12504,-0.091915,0.23896,0.1011,-0.20164,-0.029693,0.022192,-0.099002,-0.27732,-0.042378,0.13898,-0.0057773,-0.21973,-0.015284,-0.053357,0.12636},
		{0.022675,-0.16309,-0.14323,0.028962,-0.012413,-0.10634,-0.16065,-0.12861,0.20711,-0.119,0.1895,0.18168,0.057294,-0.05247,-0.013729,-0.015315,0.031772,0.08503,-0.0045557,0.061833,-0.017621,0.063617,-0.20993,-0.052907,0.1683,0.066355,-0.055554,0.047307,-0.17896,0.063334,0.23652,0.057467,-0.12984,-0.092417,-0.062173,-0.10044},
		{-0.098907,-0.034158,-0.13637,-0.073218,0.019306,0.20785,0.18478,0.23922,0.20466,-0.35402,-0.039803,-0.20749,0.12225,0.0023935,0.13672,-0.1876,0.032073,-0.0070914,0.13744,0.10641,0.10771,-0.10635,0.12816,0.020926,0.29596,0.0055444,-0.085048,-0.10403,0.047407,-0.081759,-0.25711,0.13351,0.079158,-0.0049809,-0.24204,-0.12265},
		{-0.0081946,-0.087878,-0.11437,-0.087495,0.2252,0.082205,-0.069958,-0.1801,-0.12599,0.077485,-0.17962,0.32707,-0.13145,0.12668,-0.14136,0.077907,-0.11245,0.11787,-0.13268,-0.22606,0.058841,0.15807,-0.27474,-0.38279,-0.2792,0.20961,0.17762,-0.058094,-0.21047,-0.00091266,-0.0948,-0.036523,0.21185,0.14183,0.0025671,-0.20359},
		{-0.029022,0.17882,-0.10018,-0.19154,-0.17988,0.0096351,-0.033053,0.081382,-0.050135,0.022033,0.13001,-0.18278,-0.0040903,0.04692,-0.0095871,-0.025092,0.12432,-0.032438,-0.21204,0.15504,0.062976,0.12629,0.029584,0.0203,0.0026093,-0.025976,-0.07489,-0.038751,0.12863,-0.090364,-0.17404,0.1445,0.24777,-0.016824,0.20379,0.15774},
		{0.052289,0.18403,-0.07994,0.036343,0.058378,0.10095,-0.18746,0.17256,0.14364,-0.15902,-0.0038921,-0.13138,0.069812,-0.1378,-0.053333,-0.11893,-0.23762,0.081284,0.088858,0.013114,0.04509,0.13681,-0.12255,0.019256,-0.031476,0.11392,0.030156,-0.088724,0.27417,-0.081497,-0.2336,-0.02137,0.05921,0.038116,0.058866,-0.032267},
		{-0.12839,-0.17759,0.2239,0.20185,0.055435,-0.046576,-0.087602,0.069836,0.23949,-0.09703,-0.23397,-0.053936,0.19506,-9.1574e-05,0.25633,0.16739,0.22183,-0.37475,0.06969,0.21843,-0.077857,-0.10634,0.26049,-0.0064622,-0.24833,0.022274,0.2239,-0.11329,0.1375,0.040356,-0.12535,-0.047905,-0.092827,0.22943,0.10555,0.036404},
		{0.064176,0.00069708,-0.035038,0.15581,0.14016,0.032773,-0.14118,-0.21476,-0.16494,0.071489,-0.071477,0.08527,-0.017029,0.024959,0.065917,0.099714,-0.18295,-0.027609,0.20954,-0.073947,-0.11353,-0.1231,0.24873,0.055528,-0.14929,-0.11101,-0.2008,0.045789,-0.070632,0.051142,-0.13765,-0.023567,-0.26822,0.023869,0.09656,-0.018199},
		{-0.052309,0.11031,-0.072473,0.16466,0.14559,0.2241,0.15671,-0.12798,0.032652,0.0020123,-0.048051,0.050469,-0.054419,0.074251,0.13393,0.065952,-0.19522,-0.025542,-0.0050324,-0.025222,-0.15008,0.13621,0.13965,-0.22352,-0.11384,0.068801,-0.13603,0.13626,0.22385,-0.052561,-0.14835,-0.047329,-0.020802,-0.060373,0.085307,-0.11622},
		{0.066607,0.23745,0.1434,0.33371,0.12529,-0.089131,0.086225,0.054233,0.23595,0.035434,-0.25937,-0.29662,0.02051,0.0031412,0.097228,0.013683,-0.063305,-0.17183,-0.10942,-0.059502,-0.25735,-0.034172,-0.025243,0.08365,0.21403,-0.016028,-0.21988,-0.086202,0.22361,0.022774,0.21849,0.037493,-0.12758,0.060698,0.11046,0.013604},
		{-0.013269,-0.097341,0.18412,0.20858,0.17845,0.042091,-0.26841,0.10236,-0.15883,-0.078914,-0.15556,0.011803,-0.00054613,0.16084,0.13114,-0.085324,-0.10291,0.056451,-0.13173,-0.31672,0.069479,0.081845,-0.31187,-0.053069,-0.034229,0.26455,-0.24316,-0.23282,-0.25898,0.10455,-0.032136,-0.17768,0.21837,0.2233,0.064851,-0.22999},
		{0.35589,0.14851,0.16559,0.19066,0.13115,-0.013627,0.0078667,0.047531,-0.0094233,-0.1692,0.28549,-0.038008,-0.1459,0.085481,-0.24165,-0.0099171,-0.092891,0.14057,-0.15542,-0.075126,-0.19333,0.0068413,-0.089172,-0.018445,0.21383,0.10918,-0.069213,0.048193,-0.011785,0.02045,0.21061,-0.082174,0.3219,-0.054209,0.1568,-0.011944},
		{-0.083362,-0.0056188,-0.11367,0.13827,-0.13569,0.16598,-0.15097,0.10998,0.24778,0.35019,0.37694,0.37271,-0.038974,0.049219,-0.04816,0.09959,0.26125,0.098989,0.23774,-0.032979,0.045706,0.045731,-0.12992,-0.066242,-0.15589,0.042332,-0.18997,0.11656,-0.16611,0.15543,-0.15176,-0.15449,0.30015,0.15041,0.12994,-0.03186},
		{-0.10732,-0.025906,0.14315,-0.09626,-0.0075272,-0.060555,-0.068598,-0.21972,-0.14118,-0.10571,-0.17641,0.042073,0.017445,-0.030963,-0.0033372,0.045226,0.1376,-0.17313,-0.11813,-0.086061,-0.15527,0.0083867,0.23996,0.059685,-0.1658,0.059772,0.12948,-0.3219,-0.095842,0.10277,-0.14985,0.031068,-0.065581,0.12002,0.11718,-0.04564},
		{0.60831,0.58392,0.31806,0.051786,0.17548,-0.013382,-0.03794,-0.25538,-0.067109,0.1584,0.15796,0.21789,0.049712,0.07927,-0.014467,-0.10459,-0.21951,0.072237,-0.31555,-0.049141,-0.055399,0.055733,-0.060729,0.15407,0.19726,-0.19391,0.16404,0.039406,-0.1852,0.040738,0.33414,0.023001,-0.088837,-0.24197,0.11453,0.050807},
		{-0.19244,-0.22658,0.106,0.046749,-0.06338,-0.092112,-0.061423,0.049848,0.19881,0.20458,0.18727,0.19461,0.053324,-0.049059,0.25907,0.10576,0.021586,-0.1942,-0.049734,0.11582,0.17282,-0.16635,0.0057838,0.015878,-0.24445,0.13274,-0.029178,-0.067053,0.057847,-0.017554,-0.24025,-0.21142,0.17351,0.025303,0.16194,0.053888},
		{0.13262,0.22137,0.02009,-0.058954,0.023832,0.071768,0.10713,-0.19731,-0.10005,0.1898,0.13318,-0.031485,0.074344,-0.11351,-0.23113,-0.010275,-0.12625,0.046882,-0.19729,-0.11536,0.052518,0.052447,0.062209,0.0037746,0.23309,0.05014,0.23235,-0.11273,-0.26694,-0.02293,-0.016731,0.09431,-0.049304,-0.058582,-0.12432,-0.033659},
		{-0.047501,0.0019486,0.0023589,-0.19415,-0.11232,-0.04582,0.062965,-0.24384,-0.14348,0.141,-0.038743,0.10507,-0.075657,0.041859,-0.10611,-0.11274,-0.2212,-0.011445,-0.19655,0.013354,-0.07321,-0.0095233,0.22255,0.23504,0.10498,-0.088358,0.23198,0.0063017,0.2211,-0.01456,0.30333,-0.013506,0.18317,-0.27789,-0.19547,0.074256},
		{0.037518,-0.078489,-0.1554,0.097893,0.15113,-0.063877,0.027761,-0.021947,0.24091,0.021485,-0.024825,0.044548,0.0051044,-0.039586,-0.15053,-0.091154,0.053712,-0.0086716,0.25941,-0.075514,-0.22096,-0.050889,0.033604,0.07374,-0.024271,-0.12237,-0.064538,0.11007,0.27449,-0.020298,-0.080908,-0.052177,0.079628,0.12424,0.10018,0.021194},
		{0.16054,0.22964,-0.068011,0.2159,0.096055,0.18882,0.22575,0.13176,-0.097248,-0.19247,0.075184,-0.077329,0.0056825,-0.044017,-0.039416,-0.16719,-0.18115,0.1148,-0.1614,-0.11269,-0.10563,0.03583,-0.060859,-0.061824,0.1001,-0.043608,-0.044666,0.054593,0.11876,0.0054656,0.31974,-0.057702,0.080975,-0.15768,0.031917,-0.033208},
		{-0.14919,-0.042252,-0.023652,0.094712,0.15054,0.12572,0.1077,0.14936,0.078146,-0.25019,0.015517,-0.15607,0.053435,0.014443,-0.078031,0.086222,-0.049671,0.041337,0.22351,-0.066315,-0.14748,-0.028239,-0.26254,0.058727,-0.14688,0.18617,-0.069638,-0.2361,0.14573,-0.090881,-0.02421,0.042776,0.30579,0.15608,0.20116,-0.10444},
		{0.085424,0.027305,0.0015023,-0.072192,0.13047,0.18807,-0.047567,-0.27529,-0.02389,-0.10112,-0.13871,0.17931,-0.059089,0.084817,0.094658,0.060637,0.14033,0.014923,-0.17828,-0.081774,0.17571,-0.035676,0.25762,-0.12297,0.062588,0.038066,0.21357,0.04409,-0.29604,-0.090732,0.17725,0.017993,0.20664,-0.038181,0.12524,-0.10008},
		{-0.19504,-0.22161,-0.18005,-0.17605,0.15288,0.18209,0.043986,-0.0090101,-0.139,0.031482,0.019587,-0.36859,0.14721,-0.041104,-0.055215,0.016655,-0.1129,0.014507,0.28698,-0.03764,0.22972,-0.12325,-0.22269,-0.055115,-0.069719,-0.066431,-0.24552,-0.051953,0.26543,-0.004036,-0.1093,-0.094404,-0.061856,-0.057724,-0.054071,0.37282},
		{-0.19816,-0.049535,0.049622,-0.081954,0.011063,0.0059175,0.15234,-0.17351,-0.058287,-0.050549,0.14119,-0.34689,0.26791,-0.17208,-0.020382,0.095316,0.19448,-0.31435,-0.074089,0.30687,-0.142,-0.21595,0.12118,0.36035,-0.11359,-0.30582,-0.20495,0.087697,0.33165,0.093195,-0.017797,0.012446,0.14812,-0.033914,0.0016759,0.22871},
		{0.047043,0.088632,0.02996,0.2369,0.05376,0.14231,-0.13369,0.19216,-0.22452,0.044482,-0.12588,-0.024961,-0.072506,0.23921,0.10435,-0.021352,0.20845,-0.083966,0.098615,-0.064595,-0.18983,0.17942,0.1749,-0.34432,0.13376,0.19146,-0.061623,-0.31379,-0.2458,0.16104,-0.04355,-0.16284,0.26897,0.35834,-0.079379,-0.16116},
		{0.068817,-0.047992,0.042107,-0.054039,0.049579,-0.092237,-0.22814,-0.047195,0.10652,0.079833,-0.11482,-0.19553,0.08041,-0.02974,-0.012844,0.13423,-0.049473,-0.11866,-0.047466,-0.090579,-0.24806,-0.12879,-0.16499,0.10566,0.070943,-0.063426,0.039053,0.047833,-0.20089,0.028095,0.22091,-0.088215,-0.01345,-0.11619,0.13943,0.0097405},
		{0.13223,0.12236,-0.10526,0.00069397,-0.074744,-0.18424,0.1777,0.25944,-0.0098377,-0.049844,-0.063374,-0.10132,0.026311,-0.024374,-0.12098,0.048073,0.14515,-0.046027,0.12369,0.082537,0.17786,0.13149,0.17226,0.065615,0.24472,-0.12417,-0.065929,-0.12632,0.03884,0.1297,0.072294,-0.057833,0.063995,0.10697,-0.094688,-0.060614},
		{-0.14961,0.080354,-0.12272,-0.21098,-0.012206,0.066038,-0.027076,-0.19473,0.15323,0.16079,-0.17047,-0.034474,0.096539,0.012656,-0.088828,-0.13517,0.075976,-0.10659,-0.11186,0.11115,0.17902,0.065061,0.20738,-0.069617,-0.069753,0.089232,-0.15466,-0.073345,-0.19423,-0.065567,0.16939,0.050919,0.11325,-0.05612,0.072402,0.12009},
		{-0.0030807,0.25656,0.20654,-0.17991,-0.023398,0.091297,0.159,0.061782,-0.024697,0.035486,-0.13215,-0.27518,-0.01304,0.023955,-0.14759,-0.0941,-0.14705,-0.048112,0.059896,0.20122,0.052727,0.055291,0.01547,0.12959,-0.097258,-0.14377,0.054404,0.064468,0.036674,-0.04265,-0.0047351,0.0089895,-0.24963,-0.051043,-0.16486,0.15353},
		{-0.020438,-0.051627,-0.095401,-0.17879,-0.077166,0.16701,-0.14671,-0.021386,0.074337,0.12652,0.10361,0.16739,-0.13382,0.036337,-0.14898,0.022105,0.22095,0.1789,0.098196,-0.042626,0.17836,0.032173,-0.18653,0.030761,-0.070578,-0.093641,-0.15626,-0.026561,-0.23675,-0.13137,0.0042855,0.11056,-0.022935,-0.027492,0.14414,0.019373},
		{0.16732,0.24852,0.075674,-0.033479,0.02463,0.21905,-0.0865,0.19885,-0.083702,-0.12292,0.040759,0.099076,0.024184,0.0092444,-0.024445,0.1009,-0.039328,-0.062479,-0.19394,0.032723,0.020118,-0.007483,-0.21264,-0.12402,-0.17607,0.029065,0.23754,0.095087,0.12843,-0.038886,0.26704,0.013899,-0.20193,-0.025465,-0.1579,-0.15669},
		{0.0071858,-0.081667,0.10642,0.17753,0.098464,0.11742,-0.093827,0.066998,-0.12227,-0.095124,-0.018814,0.072573,0.079054,-0.12414,-0.047217,-0.13308,0.11283,0.081612,-0.22754,-0.089625,0.069777,0.063108,0.25756,-0.034274,0.20515,0.077125,0.11708,0.11166,-0.16278,-0.03398,0.2328,0.030146,-0.20311,0.059497,0.009189,-0.026231},
		{-0.093451,0.11138,0.1417,0.19144,0.064337,0.029281,0.0034155,-0.2733,-0.32654,-0.063095,-0.20168,-0.13347,0.032407,0.16701,0.1849,-0.001766,0.13637,-0.0050227,-0.10495,-0.15006,0.090316,-7.4525e-05,-0.23509,-0.14441,-0.15429,0.29532,0.21872,-0.062107,-0.048598,0.11342,0.060434,-0.14803,-0.14711,0.30733,-0.088582,-0.34357},
		{-0.048837,-0.15769,-0.086938,0.22494,0.11273,0.13975,-0.080906,0.17806,-0.10703,0.14643,0.19526,0.34506,-0.06605,0.086238,0.013179,0.07449,0.2345,0.13938,-0.12114,-0.15082,0.048535,-0.0044646,0.14769,-0.11917,-0.24122,0.21785,0.074379,-0.092875,0.29802,-0.020762,0.028161,-0.23633,0.15756,0.30031,-0.15021,-0.16377},
		{-0.023316,-0.10772,-0.088681,0.015154,0.11483,0.11276,-0.21786,0.21006,-0.023329,0.21871,0.1911,-0.15657,0.016592,-0.04161,0.052034,-0.039282,0.039814,-0.0072262,0.16393,-0.10556,0.028848,-0.069948,0.048305,0.095437,-0.13947,0.14989,0.27438,-0.17891,0.039133,0.015563,-0.1416,-0.028188,0.055455,-0.04667,-0.043191,-0.13164},
		{-0.049596,-0.036313,0.11849,-0.037669,0.082098,0.012516,0.11833,0.040868,0.14762,-0.1987,-0.00015896,-0.06518,0.057365,-0.02053,0.13365,-0.12509,-0.1288,0.0057082,-0.20604,0.064771,-0.0935,0.078476,-0.17765,0.015084,-0.24207,-0.0814,0.13858,-0.1239,0.12692,0.018466,-0.097223,-0.041845,-0.12654,-0.048693,0.086225,-0.11616},
		{0.0070013,0.044552,0.070918,0.17337,0.14412,0.057005,-0.10107,0.22982,0.12486,-0.12925,0.058815,0.11879,0.1351,-0.19746,-0.10722,-0.11801,-0.039569,0.015131,0.18468,0.015219,-0.21471,0.053683,-0.20455,0.011869,0.17367,0.062597,-0.26702,-0.091026,-0.17385,0.036665,0.020278,-0.037225,0.11678,0.082083,0.002751,0.04024},
		{-0.15568,-0.04986,0.084096,-0.13608,-0.13391,0.0003085,0.04772,0.089075,-0.06742,0.013039,0.1589,-0.26018,0.10417,-0.032927,0.13577,-0.030083,0.12074,0.029075,-0.20777,-0.027772,0.01029,-0.13629,0.31437,0.017604,-0.18575,-0.10774,0.21857,-0.0092888,-0.08031,-0.051968,0.04942,0.00748,-0.1813,0.042577,-0.16654,0.031465},
		{-0.12978,-0.082386,-0.051525,-0.077821,0.20312,-0.068544,-0.1914,0.21014,0.27822,-0.082229,0.20169,0.17286,0.070983,-0.076584,0.14899,-0.12162,0.1546,0.17071,-0.096357,-0.015405,0.071347,-0.15411,0.098679,0.16989,-0.20944,-0.011406,0.21807,0.15995,0.15255,-0.12226,-0.22536,0.080014,0.0078297,-0.038861,0.068867,0.012998},
		{-0.30464,-0.21974,-0.13463,-0.13514,0.14579,0.041334,0.11638,0.079903,-0.25745,0.05588,-7.9362e-05,-0.072902,0.11702,0.044614,-0.041351,0.087364,0.19003,0.011759,-0.0057225,0.10675,-0.12754,-0.14914,-0.015952,-0.0089203,-0.032524,-0.091338,-0.16854,-0.038911,-0.0045191,0.12143,-0.15936,-0.040784,-0.070582,-0.219,-0.19079,0.054858},
		{0.221,0.1014,0.10984,-0.050301,-0.10662,0.18578,-0.14076,0.25082,0.068931,0.044017,0.084711,-0.16599,-0.16416,0.0076537,-0.1993,0.090184,-0.13963,-0.10033,-0.002108,0.00807,-0.041179,0.021443,0.06994,-0.035045,-0.19778,0.096638,-0.04795,-0.20217,-0.24875,0.016899,-0.27752,0.054795,0.17497,0.19235,0.12003,-0.0010339},
		{-0.027839,0.050581,0.0090772,0.13473,0.011551,-0.21179,0.11094,-0.10838,-0.051623,-0.16249,-0.13778,-0.14769,0.1008,-0.037065,0.013079,0.011481,-0.027385,-0.025123,-0.18285,0.14763,-0.097203,-0.098209,0.25596,-0.0027222,-0.0060375,-0.073676,-0.21662,0.092751,0.2645,-0.11709,0.02979,0.0095374,0.15091,0.014275,0.097023,0.032209},
		{0.060268,-0.049851,0.020978,-0.096952,0.0522,0.11813,-0.11831,0.16344,0.19069,0.087739,0.16781,0.021259,-0.0043142,-0.0077486,0.014318,0.046358,0.23505,0.017467,0.03351,-0.0053359,0.17741,0.034777,-0.089349,-0.01837,-0.27676,-0.070828,0.11773,0.070262,-0.26438,0.0053098,-0.12159,-0.00886,0.32399,-0.094017,0.017264,-0.034406},
		{0.09831,-0.020693,0.10641,0.12476,-0.1394,0.15832,0.04324,-0.096575,-0.041844,0.070938,-0.19968,-0.018352,0.0055333,-0.017375,-0.16351,0.031877,-0.20334,0.047794,0.15223,0.068551,-0.14033,0.0818,0.23447,-0.024257,0.00974,0.084298,-0.22051,-0.00055111,0.25054,0.053753,-0.057679,0.058967,0.099396,0.0064488,-0.14541,-0.012765},
		{-0.22093,-0.26849,-0.061187,-0.038106,0.13686,0.058033,0.016672,0.19286,0.151,0.043649,0.15995,-0.089437,0.075188,-0.16227,0.25588,0.23128,-0.12573,-0.20076,0.28843,-0.02289,-0.11181,-0.081054,-0.15319,0.056436,0.17263,-0.029198,0.27576,-0.15736,0.098693,0.010881,-0.14023,-0.15579,-0.21656,-0.14576,-0.20978,-0.068075},
		{0.038664,-0.092894,-0.036262,0.17961,0.1075,-0.02159,-0.20753,-0.18483,0.053792,-0.0072362,0.044394,-0.15479,0.059609,0.064791,0.081045,-0.0071567,0.039493,-0.0022661,0.16839,0.055879,-0.11717,0.045982,-0.13953,0.0089588,0.18337,-0.025164,0.071621,-0.037364,-0.20648,-0.05589,-0.32038,0.050046,0.046307,-0.12327,-0.20326,0.045993},
		{0.055249,0.11504,0.12368,0.14243,0.062261,-0.024326,0.12196,0.075373,0.08863,0.13458,0.091542,0.10069,0.086814,-0.017179,0.026912,0.051305,-0.0012018,-0.014888,0.11487,0.0038337,0.093463,-0.096745,0.19118,-0.024378,0.24968,-0.085663,0.15454,0.021059,0.078303,-0.060031,-0.11249,-0.064538,-0.059344,0.082578,0.0055754,0.022003},
		{-0.14823,0.10471,0.067667,-0.10778,-0.068354,0.080615,-0.0095115,-0.21186,0.0082333,-0.18328,0.087502,0.20272,-0.078362,0.14074,0.030605,-0.0068762,-0.066756,-0.065185,-0.025948,0.027394,0.12941,-0.10348,-0.16403,0.060199,0.13982,-0.038944,-0.17161,-0.093509,-0.054221,0.021197,-0.12742,0.017467,-0.2777,0.099528,-0.11224,-0.0023162},
		{0.18234,-0.0010844,-0.11023,0.055143,0.065561,0.029179,-0.093918,-0.047438,-0.12466,0.14939,-0.15988,0.20983,0.02674,-0.018375,-0.051475,-0.12339,-0.23039,0.15649,0.054052,0.0011037,-0.16916,0.064045,-0.080985,-0.037832,-0.10585,-0.058393,0.22986,0.1913,-0.11752,-0.070143,0.096671,0.061297,0.17305,-0.15174,0.11532,0.092077},
		{-0.035575,-0.058851,0.065589,-0.23371,0.074416,0.14771,-0.069608,0.034938,-0.14685,-0.060677,0.052489,-0.13552,0.091757,-0.066971,0.14333,-0.11583,0.058438,0.077201,-0.1517,-0.016396,0.036768,-0.085477,-0.2735,-0.010613,0.13632,0.11777,0.07034,0.0016258,0.22925,-0.014071,-0.16792,0.16654,-0.25627,-0.25616,0.11539,0.19936},
		{0.08737,-0.13803,-0.19671,0.051182,0.051412,-0.00040568,0.20133,0.20932,0.07793,0.27252,0.26666,0.12478,-0.042901,0.044853,-0.17144,-0.033742,0.091607,0.074092,0.084034,-0.089698,-0.10725,-0.018585,0.14358,0.062983,-0.19314,-0.13322,0.06323,-0.13486,0.083982,0.013587,-0.0015724,0.0089278,0.29304,0.0086362,-0.13032,0.054232},
		{0.036379,0.15086,-0.14793,-0.0071685,-0.14653,0.018534,-0.061497,0.068809,-0.10756,0.092629,0.14861,0.061272,0.0034423,0.0082117,0.056156,-0.029323,-0.04427,0.051305,-0.27507,0.033084,-0.13455,0.14995,0.36517,-0.088817,0.035257,0.04527,0.081745,0.024712,0.39656,0.18822,-0.02286,-0.14296,0.039493,-0.10671,-0.074328,0.064877},
		{-0.062539,0.009314,0.12661,0.15484,-0.0096377,0.095615,-0.11936,-0.20737,-0.1366,0.10179,0.044302,-0.19632,-0.074832,0.054795,-0.07697,-0.024853,0.075049,0.030829,0.13803,-0.034392,0.062302,-0.072744,0.20441,0.064787,-0.24446,-0.026543,0.24273,-0.059192,0.30109,-0.035909,0.044902,-0.053953,0.20229,0.028487,0.16579,0.044803},
		{-0.056668,0.1114,-0.16091,0.047277,-0.013193,-0.2188,-0.025135,-0.16247,-0.32369,0.19188,0.048657,-0.1106,-0.10222,-0.04101,-0.24996,-0.23062,0.043405,0.19953,0.18692,0.022012,0.0024278,0.046572,0.016798,0.010831,-0.13318,-0.13525,-0.12998,0.15045,0.35257,0.17397,0.17213,-0.032046,0.089685,-0.13474,-0.11776,0.081684},
		{-0.165,0.091908,0.12185,0.0062807,0.023053,0.03169,0.099062,0.18958,-0.0069568,-0.13684,-0.055922,-0.081162,0.036324,0.018235,-0.040405,0.057124,-0.1537,-0.030083,-0.18387,-0.02998,-0.11537,-0.059597,-0.35439,-0.0088613,0.09816,0.13371,-0.11712,-0.14004,-0.050877,-0.026923,0.15584,-0.1128,0.083233,0.028642,-0.057075,0.029805},
		{0.064837,0.11808,0.079219,0.12453,-0.17747,-0.090754,0.074717,-0.015614,-0.17954,-0.19704,0.065833,0.10603,-0.077628,-0.047708,0.077545,-0.083798,-0.10604,0.031002,0.10668,-0.061776,0.050978,-0.0020573,-0.29024,0.079164,0.28767,0.055247,-0.15107,0.02492,-0.048007,-0.082284,-0.21236,-0.010509,0.24708,0.078046,-0.042663,0.013644},
		{-0.010109,-0.0089047,-0.22325,-0.24765,-0.10023,0.090853,-0.19255,-0.16023,-0.20522,-0.091895,0.053031,0.047329,-0.079964,0.0099672,-0.13005,0.10629,-0.049654,-0.053095,-0.11641,0.1093,0.2559,0.15734,0.27067,-0.23853,0.1809,0.064862,0.065787,0.016808,-0.025748,0.16443,0.18937,-0.22117,-0.32234,-0.010015,0.18507,0.10903},
		{-0.13084,0.036154,-0.032972,-0.11216,-0.032459,-0.14989,0.039893,0.22148,-0.12206,-0.16042,0.075835,0.0043317,0.06691,0.050118,0.17633,-0.07765,0.26015,0.025639,-0.013762,-0.011849,0.023092,-0.15179,0.046512,-0.042499,-0.25701,-0.027943,0.11727,-0.04559,-0.057089,0.094648,-0.0375,-0.12295,-0.23559,-0.13749,-0.0052338,0.0068193},
		{0.0003465,0.075869,0.10906,0.10342,-0.10297,-0.051065,0.0072805,0.063891,0.068705,0.15671,-0.10886,-0.059607,0.0017011,0.03805,-0.062775,-0.023694,0.1631,-0.070155,-0.24902,-0.034085,-0.20597,-0.00038067,-0.30884,0.0052917,-0.1439,-0.034191,0.12899,-0.027464,-0.01754,-0.047824,-0.27715,-0.052347,-0.20559,-0.035468,0.17683,0.046974},
		{-0.02889,-0.087458,-0.010838,-0.018521,-0.12029,-0.15611,-0.16806,-0.1838,-0.17034,0.064623,-0.051784,-0.11028,-0.15441,0.081468,-0.11986,0.0777,0.1085,0.0042795,0.1412,0.025978,-0.10047,0.041909,-0.32766,0.022323,-0.10756,0.032288,0.20212,0.0078673,0.32813,-0.075448,-0.0058303,0.063484,-0.19663,0.076251,-0.064668,0.027221},
		{-0.039802,-0.086357,7.0236e-05,0.087022,-0.097006,-0.021227,0.17904,0.14021,-0.0008974,0.16337,0.12298,0.0035682,0.0034495,-0.052109,-0.06549,0.029979,-0.086955,0.076333,-0.15531,0.051198,-0.17737,0.084559,0.22453,-0.0081421,0.1243,-0.045487,-0.11437,-0.061149,-0.24265,0.042895,0.057634,0.083555,0.21233,0.0094479,0.1798,0.052501},
		{-0.054142,0.063195,0.057388,-0.0023074,0.17187,-0.088146,-0.0087025,0.11489,0.089083,0.13176,0.037667,0.047044,-0.09282,-0.00086189,0.039639,0.022234,-0.19821,-0.067408,0.027938,-0.043805,0.20078,-0.0051136,0.32329,-0.019955,-0.11869,0.034294,-0.19485,-0.078866,-0.11527,0.0027292,-0.11461,-0.012367,0.23623,-0.12379,0.038774,-0.055561}

};
double WeightHO[3][90]= {
		{-0.41798,-0.90631,0.68494,-0.51626,-0.4851,1.0639,0.57995,0.40849,-0.20468,-1.0678,-0.3265,0.55214,0.59217,-0.34867,0.62865,0.18635,0.40576,-0.92232,0.38112,-0.53125,-0.045206,0.51295,-0.56574,0.81181,0.82321,0.81487,0.8235,-0.23198,-0.52734,0.38437,-0.81494,0.89501,-0.81771,0.035052,-0.75042,-0.80451,0.0020078,0.072151,0.64379,-0.065786,1.0869,-0.47837,-0.89874,-0.22274,-0.94258,0.82179,0.15543,-0.42429,-0.054675,0.18613,-0.63848,-0.96566,0.63206,-0.18762,-0.71935,0.21907,-1.0838,-0.10549,-0.71719,0.88175,1.0375,-1.0706,0.4453,-0.72421,0.18798,-0.7895,-0.11102,0.67709,-0.22216,-0.0051634,-0.57832,-0.9669,0.52572,0.741,-0.85302,-0.30108,0.15775,0.66999,0.16308,0.15066,-0.019637,-0.80156,-0.96033,-0.1887,-0.98302,0.81268,0.49876,-0.045704,0.33427,-0.24659},
		{-0.69804,0.31265,0.46365,-0.78204,0.65174,-1.6486,0.59984,0.51121,0.73913,1.1932,-0.76872,0.96888,0.79381,-0.79753,0.70557,-0.76372,0.12803,-0.46596,0.73137,-0.082666,-0.29864,-0.90428,-1.0265,1.159,-0.046059,0.3233,0.65511,-0.90009,-0.12296,1.0957,0.81407,-0.56644,0.40263,0.89205,1.0216,-0.32898,-0.66,-0.99193,-1.3532,-1.0809,-0.69475,0.6369,0.7937,-0.31044,0.25707,0.73961,0.40983,-0.69793,0.53678,-0.47518,0.93115,0.76612,-1.0151,-1.0248,0.3147,0.59628,0.59445,0.60674,0.73805,0.99157,-0.75407,1.0865,-0.19701,0.059624,-0.17997,-0.41183,1.0266,-0.60173,-0.87805,0.44751,0.23524,0.3259,0.4955,0.63774,-0.16527,-0.90824,0.0094524,1.0578,-0.94373,0.25474,0.39319,0.28799,-0.06867,0.67198,0.39376,-1.0095,-0.31244,-0.89154,0.78111,-0.95451},
		{-0.16129,0.18805,-0.74783,-0.81501,0.020759,1.0647,-0.90247,0.88611,0.20896,-0.19232,-0.18744,0.30459,-0.44587,0.98216,-0.36956,-0.50739,-0.26268,0.54149,0.19903,0.51347,-0.28964,0.5942,-0.79944,0.59477,-0.88559,-0.18492,-0.34978,0.22746,-0.66272,0.015263,0.7285,0.40461,0.40912,-0.019291,0.20736,0.77962,0.75149,0.17548,-0.064362,-0.46697,-0.7275,-0.74702,-0.35513,0.76319,-0.29576,-0.67974,0.10048,0.37853,-0.77439,0.75525,0.47407,-0.71152,0.4766,-0.6499,0.29873,-0.67394,0.72435,0.054607,0.27168,-0.20665,0.68737,0.48024,-0.1983,-0.19786,-0.95681,-0.91622,-0.0090729,-0.58004,-0.29358,-0.25546,0.5687,-0.95497,-1.0214,0.96385,0.56212,-0.3225,0.76042,-0.55874,-0.48769,-0.75391,0.20862,0.73709,-0.66856,-0.023632,0.87407,-0.65511,-0.26293,0.68338,0.46246,0.49869}

};
double biases1[90] = {1.2135,1.675,-0.66143,1.8621,-1.8821,4.3353,1.4256,-1.6339,-1.3506,-3.6152,-2.8909,-2.1513,-1.4763,1.211,1.8683,1.103,-1.7426,-1.0964,-0.10105,-0.32089,-0.8297,-0.65282,-1.4186,-2.4079,0.22732,0.84691,0.26718,0.23481,-0.27682,-2.4366,-0.53821,-0.4114,1.0105,-2.3896,-0.79481,-0.68623,-0.17832,0.7246,-2.3665,-0.68146,0.17704,-1.279,-0.27893,1.2409,-1.0965,2.1596,-0.50009,-1.5358,-1.8033,2.2191,0.24998,0.89402,0.073483,1.2364,0.38195,-1.0174,1.0542,0.76445,2.1323,-0.61653,-0.82716,-2.8409,-0.92942,-2.0033,-1.9016,0.0075476,-0.84854,-0.31905,1.0603,-0.53541,3.9295,1.3193,1.7027,1.4808,2.5175,0.33876,0.44372,-1.7836,0.8395,-2.797,-0.80127,-2.195,-0.97538,0.40513,2.585,-1.9676,-3.5205,-0.81905,-1.9657,-2.1804 };

double biases2[3] = { 0.71525,-0.50248,-0.046107 };
#endif /* FFNEURALNET_H_ */
